<?xml version="1.0"?>
<opencv_storage>
<cascade>
  <stageType>BOOST</stageType>
  <featureType>HAAR</featureType>
  <height>25</height>
  <width>20</width>
  <stageParams>
    <boostType>GAB</boostType>
    <minHitRate>9.9500000476837158e-01</minHitRate>
    <maxFalseAlarm>5.0000000000000000e-01</maxFalseAlarm>
    <weightTrimRate>9.4999999999999996e-01</weightTrimRate>
    <maxDepth>1</maxDepth>
    <maxWeakCount>100</maxWeakCount></stageParams>
  <featureParams>
    <maxCatCount>0</maxCatCount>
    <featSize>1</featSize>
    <mode>BASIC</mode></featureParams>
  <stageNum>14</stageNum>
  <stages>
    <!-- stage 0 -->
    <_>
      <maxWeakCount>3</maxWeakCount>
      <stageThreshold>-6.9983714818954468e-01</stageThreshold>
      <weakClassifiers>
        <_>
          <internalNodes>
            0 -1 12 3.6465995013713837e-02</internalNodes>
          <leafValues>
            -8.5000002384185791e-01 9.2500001192092896e-01</leafValues></_>
        <_>
          <internalNodes>
            0 -1 0 -1.3028103113174438e-01</internalNodes>
          <leafValues>
            9.8893225193023682e-01 -5.4534202814102173e-01</leafValues></_>
        <_>
          <internalNodes>
            0 -1 16 6.3988352194428444e-03</internalNodes>
          <leafValues>
            -7.9374390840530396e-01 6.9550490379333496e-01</leafValues></_></weakClassifiers></_>
    <!-- stage 1 -->
    <_>
      <maxWeakCount>2</maxWeakCount>
      <stageThreshold>3.3883426338434219e-02</stageThreshold>
      <weakClassifiers>
        <_>
          <internalNodes>
            0 -1 2 -1.6661339998245239e-01</internalNodes>
          <leafValues>
            9.8170733451843262e-01 -4.4852942228317261e-01</leafValues></_>
        <_>
          <internalNodes>
            0 -1 19 -2.8305845335125923e-03</internalNodes>
          <leafValues>
            -9.4782388210296631e-01 6.6673690080642700e-01</leafValues></_></weakClassifiers></_>
    <!-- stage 2 -->
    <_>
      <maxWeakCount>2</maxWeakCount>
      <stageThreshold>1.5532127581536770e-02</stageThreshold>
      <weakClassifiers>
        <_>
          <internalNodes>
            0 -1 34 -2.8007727116346359e-02</internalNodes>
          <leafValues>
            7.4336284399032593e-01 -9.1891890764236450e-01</leafValues></_>
        <_>
          <internalNodes>
            0 -1 3 -1.4151915907859802e-01</internalNodes>
          <leafValues>
            9.3445104360580444e-01 -6.6843813657760620e-01</leafValues></_></weakClassifiers></_>
    <!-- stage 3 -->
    <_>
      <maxWeakCount>3</maxWeakCount>
      <stageThreshold>-7.6961368322372437e-01</stageThreshold>
      <weakClassifiers>
        <_>
          <internalNodes>
            0 -1 26 -1.9377898424863815e-02</internalNodes>
          <leafValues>
            8.7167072296142578e-01 -8.5561496019363403e-01</leafValues></_>
        <_>
          <internalNodes>
            0 -1 43 2.0706580951809883e-02</internalNodes>
          <leafValues>
            -5.3701525926589966e-01 9.0898561477661133e-01</leafValues></_>
        <_>
          <internalNodes>
            0 -1 8 7.3593668639659882e-04</internalNodes>
          <leafValues>
            6.2301659584045410e-01 -8.6290383338928223e-01</leafValues></_></weakClassifiers></_>
    <!-- stage 4 -->
    <_>
      <maxWeakCount>3</maxWeakCount>
      <stageThreshold>-4.7814640402793884e-01</stageThreshold>
      <weakClassifiers>
        <_>
          <internalNodes>
            0 -1 43 1.9704122096300125e-02</internalNodes>
          <leafValues>
            -4.7347739338874817e-01 9.2764109373092651e-01</leafValues></_>
        <_>
          <internalNodes>
            0 -1 21 -4.3160952627658844e-03</internalNodes>
          <leafValues>
            6.2574172019958496e-01 -9.0712678432464600e-01</leafValues></_>
        <_>
          <internalNodes>
            0 -1 14 -1.7956053838133812e-02</internalNodes>
          <leafValues>
            9.0245777368545532e-01 -4.1633215546607971e-01</leafValues></_></weakClassifiers></_>
    <!-- stage 5 -->
    <_>
      <maxWeakCount>2</maxWeakCount>
      <stageThreshold>5.5200353264808655e-02</stageThreshold>
      <weakClassifiers>
        <_>
          <internalNodes>
            0 -1 48 3.2841507345438004e-02</internalNodes>
          <leafValues>
            -4.0337711572647095e-01 9.2203897237777710e-01</leafValues></_>
        <_>
          <internalNodes>
            0 -1 39 4.9883296014741063e-04</internalNodes>
          <leafValues>
            6.0687041282653809e-01 -8.6683863401412964e-01</leafValues></_></weakClassifiers></_>
    <!-- stage 6 -->
    <_>
      <maxWeakCount>2</maxWeakCount>
      <stageThreshold>-9.0502984821796417e-02</stageThreshold>
      <weakClassifiers>
        <_>
          <internalNodes>
            0 -1 24 3.1899363966658711e-04</internalNodes>
          <leafValues>
            6.7368423938751221e-01 -9.5999997854232788e-01</leafValues></_>
        <_>
          <internalNodes>
            0 -1 42 1.0644516348838806e-01</internalNodes>
          <leafValues>
            -5.6289553642272949e-01 8.6949700117111206e-01</leafValues></_></weakClassifiers></_>
    <!-- stage 7 -->
    <_>
      <maxWeakCount>4</maxWeakCount>
      <stageThreshold>-5.0403410196304321e-01</stageThreshold>
      <weakClassifiers>
        <_>
          <internalNodes>
            0 -1 40 -8.7078399956226349e-03</internalNodes>
          <leafValues>
            6.8342244625091553e-01 -9.0188682079315186e-01</leafValues></_>
        <_>
          <internalNodes>
            0 -1 5 -1.0602666437625885e-01</internalNodes>
          <leafValues>
            8.5092234611511230e-01 -4.9925836920738220e-01</leafValues></_>
        <_>
          <internalNodes>
            0 -1 33 -1.4892148319631815e-03</internalNodes>
          <leafValues>
            -9.5633608102798462e-01 4.8634475469589233e-01</leafValues></_>
        <_>
          <internalNodes>
            0 -1 44 -1.5642508864402771e-02</internalNodes>
          <leafValues>
            4.1076627373695374e-01 -8.5271036624908447e-01</leafValues></_></weakClassifiers></_>
    <!-- stage 8 -->
    <_>
      <maxWeakCount>2</maxWeakCount>
      <stageThreshold>-2.9498597979545593e-01</stageThreshold>
      <weakClassifiers>
        <_>
          <internalNodes>
            0 -1 15 4.6762026613578200e-04</internalNodes>
          <leafValues>
            -9.1304349899291992e-01 7.0562767982482910e-01</leafValues></_>
        <_>
          <internalNodes>
            0 -1 17 -1.8268021449330263e-05</internalNodes>
          <leafValues>
            6.1805748939514160e-01 -8.0059248208999634e-01</leafValues></_></weakClassifiers></_>
    <!-- stage 9 -->
    <_>
      <maxWeakCount>5</maxWeakCount>
      <stageThreshold>-6.8835479021072388e-01</stageThreshold>
      <weakClassifiers>
        <_>
          <internalNodes>
            0 -1 47 6.1167687177658081e-02</internalNodes>
          <leafValues>
            -2.9690346121788025e-01 8.6482334136962891e-01</leafValues></_>
        <_>
          <internalNodes>
            0 -1 38 8.1231724470853806e-04</internalNodes>
          <leafValues>
            5.1420921087265015e-01 -7.9243904352188110e-01</leafValues></_>
        <_>
          <internalNodes>
            0 -1 41 7.4267380114179105e-05</internalNodes>
          <leafValues>
            -6.8243581056594849e-01 4.4251528382301331e-01</leafValues></_>
        <_>
          <internalNodes>
            0 -1 14 -1.6339436173439026e-02</internalNodes>
          <leafValues>
            7.1843653917312622e-01 -4.5365655422210693e-01</leafValues></_>
        <_>
          <internalNodes>
            0 -1 29 -3.1312091741710901e-03</internalNodes>
          <leafValues>
            -8.9152848720550537e-01 3.7535327672958374e-01</leafValues></_></weakClassifiers></_>
    <!-- stage 10 -->
    <_>
      <maxWeakCount>6</maxWeakCount>
      <stageThreshold>-5.4293674230575562e-01</stageThreshold>
      <weakClassifiers>
        <_>
          <internalNodes>
            0 -1 31 8.6771164205856621e-05</internalNodes>
          <leafValues>
            5.9550559520721436e-01 -8.2805430889129639e-01</leafValues></_>
        <_>
          <internalNodes>
            0 -1 49 -5.1394840702414513e-03</internalNodes>
          <leafValues>
            6.8702381849288940e-01 -5.4159748554229736e-01</leafValues></_>
        <_>
          <internalNodes>
            0 -1 22 -8.7191892089322209e-04</internalNodes>
          <leafValues>
            -8.8837414979934692e-01 4.0072989463806152e-01</leafValues></_>
        <_>
          <internalNodes>
            0 -1 36 -5.7614775141701102e-04</internalNodes>
          <leafValues>
            4.0315625071525574e-01 -6.8903183937072754e-01</leafValues></_>
        <_>
          <internalNodes>
            0 -1 9 -2.2604515776038170e-02</internalNodes>
          <leafValues>
            7.8743380308151245e-01 -4.0252068638801575e-01</leafValues></_>
        <_>
          <internalNodes>
            0 -1 35 2.3378623882308602e-04</internalNodes>
          <leafValues>
            -7.3286694288253784e-01 4.2534962296485901e-01</leafValues></_></weakClassifiers></_>
    <!-- stage 11 -->
    <_>
      <maxWeakCount>5</maxWeakCount>
      <stageThreshold>-8.3161056041717529e-01</stageThreshold>
      <weakClassifiers>
        <_>
          <internalNodes>
            0 -1 6 -7.7760949730873108e-02</internalNodes>
          <leafValues>
            8.7947881221771240e-01 -2.3890784382820129e-01</leafValues></_>
        <_>
          <internalNodes>
            0 -1 45 -2.8458079323172569e-03</internalNodes>
          <leafValues>
            5.1626443862915039e-01 -7.3783665895462036e-01</leafValues></_>
        <_>
          <internalNodes>
            0 -1 1 -1.5350866317749023e-01</internalNodes>
          <leafValues>
            5.6104415655136108e-01 -4.9149975180625916e-01</leafValues></_>
        <_>
          <internalNodes>
            0 -1 7 -1.1075643822550774e-02</internalNodes>
          <leafValues>
            3.5628941655158997e-01 -8.7842279672622681e-01</leafValues></_>
        <_>
          <internalNodes>
            0 -1 23 -3.7484602071344852e-03</internalNodes>
          <leafValues>
            -9.6663737297058105e-01 2.6095545291900635e-01</leafValues></_></weakClassifiers></_>
    <!-- stage 12 -->
    <_>
      <maxWeakCount>6</maxWeakCount>
      <stageThreshold>-1.0304193496704102e+00</stageThreshold>
      <weakClassifiers>
        <_>
          <internalNodes>
            0 -1 4 -9.4628989696502686e-02</internalNodes>
          <leafValues>
            7.6084101200103760e-01 -4.0774488449096680e-01</leafValues></_>
        <_>
          <internalNodes>
            0 -1 32 -3.6066798202227801e-05</internalNodes>
          <leafValues>
            5.1092678308486938e-01 -6.6453945636749268e-01</leafValues></_>
        <_>
          <internalNodes>
            0 -1 27 3.6117836134508252e-04</internalNodes>
          <leafValues>
            -6.6055303812026978e-01 4.8320448398590088e-01</leafValues></_>
        <_>
          <internalNodes>
            0 -1 30 -2.4685132302693091e-05</internalNodes>
          <leafValues>
            3.2099169492721558e-01 -8.3708918094635010e-01</leafValues></_>
        <_>
          <internalNodes>
            0 -1 46 8.0529756844043732e-02</internalNodes>
          <leafValues>
            -3.9950230717658997e-01 7.6272541284561157e-01</leafValues></_>
        <_>
          <internalNodes>
            0 -1 13 -6.5915653249248862e-04</internalNodes>
          <leafValues>
            7.7993285655975342e-01 -3.8021430373191833e-01</leafValues></_></weakClassifiers></_>
    <!-- stage 13 -->
    <_>
      <maxWeakCount>7</maxWeakCount>
      <stageThreshold>-6.8590939044952393e-01</stageThreshold>
      <weakClassifiers>
        <_>
          <internalNodes>
            0 -1 37 2.1174518042244017e-04</internalNodes>
          <leafValues>
            -5.7785469293594360e-01 6.2239295244216919e-01</leafValues></_>
        <_>
          <internalNodes>
            0 -1 11 1.6954381018877029e-02</internalNodes>
          <leafValues>
            -4.2450016736984253e-01 6.6941213607788086e-01</leafValues></_>
        <_>
          <internalNodes>
            0 -1 28 7.7394675463438034e-04</internalNodes>
          <leafValues>
            -5.3892552852630615e-01 4.7485324740409851e-01</leafValues></_>
        <_>
          <internalNodes>
            0 -1 10 -3.5225257277488708e-02</internalNodes>
          <leafValues>
            5.8362710475921631e-01 -4.4816833734512329e-01</leafValues></_>
        <_>
          <internalNodes>
            0 -1 25 -4.9637146294116974e-03</internalNodes>
          <leafValues>
            -8.1788522005081177e-01 3.0126360058784485e-01</leafValues></_>
        <_>
          <internalNodes>
            0 -1 18 -1.4616812113672495e-03</internalNodes>
          <leafValues>
            7.2609382867813110e-01 -3.4534305334091187e-01</leafValues></_>
        <_>
          <internalNodes>
            0 -1 20 -3.7931249244138598e-04</internalNodes>
          <leafValues>
            -8.1773048639297485e-01 3.2282239198684692e-01</leafValues></_></weakClassifiers></_></stages>
  <features>
    <_>
      <rects>
        <_>
          0 0 8 16 -1.</_>
        <_>
          4 0 4 16 2.</_></rects>
      <tilted>0</tilted></_>
    <_>
      <rects>
        <_>
          0 1 6 17 -1.</_>
        <_>
          3 1 3 17 2.</_></rects>
      <tilted>0</tilted></_>
    <_>
      <rects>
        <_>
          0 1 6 22 -1.</_>
        <_>
          3 1 3 22 2.</_></rects>
      <tilted>0</tilted></_>
    <_>
      <rects>
        <_>
          0 1 6 23 -1.</_>
        <_>
          3 1 3 23 2.</_></rects>
      <tilted>0</tilted></_>
    <_>
      <rects>
        <_>
          0 2 10 10 -1.</_>
        <_>
          5 2 5 10 2.</_></rects>
      <tilted>0</tilted></_>
    <_>
      <rects>
        <_>
          0 7 6 9 -1.</_>
        <_>
          3 7 3 9 2.</_></rects>
      <tilted>0</tilted></_>
    <_>
      <rects>
        <_>
          1 2 18 3 -1.</_>
        <_>
          7 2 6 3 3.</_></rects>
      <tilted>0</tilted></_>
    <_>
      <rects>
        <_>
          1 16 4 9 -1.</_>
        <_>
          1 19 4 3 3.</_></rects>
      <tilted>0</tilted></_>
    <_>
      <rects>
        <_>
          1 18 16 4 -1.</_>
        <_>
          1 20 16 2 2.</_></rects>
      <tilted>0</tilted></_>
    <_>
      <rects>
        <_>
          2 0 13 2 -1.</_>
        <_>
          2 1 13 1 2.</_></rects>
      <tilted>0</tilted></_>
    <_>
      <rects>
        <_>
          2 0 15 6 -1.</_>
        <_>
          2 3 15 3 2.</_></rects>
      <tilted>0</tilted></_>
    <_>
      <rects>
        <_>
          2 5 4 16 -1.</_>
        <_>
          2 5 2 8 2.</_>
        <_>
          4 13 2 8 2.</_></rects>
      <tilted>0</tilted></_>
    <_>
      <rects>
        <_>
          2 21 17 4 -1.</_>
        <_>
          2 23 17 2 2.</_></rects>
      <tilted>0</tilted></_>
    <_>
      <rects>
        <_>
          2 23 1 2 -1.</_>
        <_>
          2 24 1 1 2.</_></rects>
      <tilted>0</tilted></_>
    <_>
      <rects>
        <_>
          3 0 13 2 -1.</_>
        <_>
          3 1 13 1 2.</_></rects>
      <tilted>0</tilted></_>
    <_>
      <rects>
        <_>
          3 16 16 1 -1.</_>
        <_>
          11 16 8 1 2.</_></rects>
      <tilted>0</tilted></_>
    <_>
      <rects>
        <_>
          3 19 3 6 -1.</_>
        <_>
          3 22 3 3 2.</_></rects>
      <tilted>0</tilted></_>
    <_>
      <rects>
        <_>
          3 20 12 2 -1.</_>
        <_>
          3 21 12 1 2.</_></rects>
      <tilted>0</tilted></_>
    <_>
      <rects>
        <_>
          4 23 1 2 -1.</_>
        <_>
          4 24 1 1 2.</_></rects>
      <tilted>0</tilted></_>
    <_>
      <rects>
        <_>
          5 7 5 18 -1.</_>
        <_>
          5 16 5 9 2.</_></rects>
      <tilted>0</tilted></_>
    <_>
      <rects>
        <_>
          5 8 1 9 -1.</_>
        <_>
          5 11 1 3 3.</_></rects>
      <tilted>0</tilted></_>
    <_>
      <rects>
        <_>
          5 10 2 15 -1.</_>
        <_>
          5 15 2 5 3.</_></rects>
      <tilted>0</tilted></_>
    <_>
      <rects>
        <_>
          5 13 5 9 -1.</_>
        <_>
          5 16 5 3 3.</_></rects>
      <tilted>0</tilted></_>
    <_>
      <rects>
        <_>
          5 16 5 6 -1.</_>
        <_>
          5 19 5 3 2.</_></rects>
      <tilted>0</tilted></_>
    <_>
      <rects>
        <_>
          5 16 10 6 -1.</_>
        <_>
          5 19 10 3 2.</_></rects>
      <tilted>0</tilted></_>
    <_>
      <rects>
        <_>
          5 17 8 8 -1.</_>
        <_>
          5 17 4 4 2.</_>
        <_>
          9 21 4 4 2.</_></rects>
      <tilted>0</tilted></_>
    <_>
      <rects>
        <_>
          5 19 9 6 -1.</_>
        <_>
          5 21 9 2 3.</_></rects>
      <tilted>0</tilted></_>
    <_>
      <rects>
        <_>
          6 2 4 4 -1.</_>
        <_>
          6 4 4 2 2.</_></rects>
      <tilted>0</tilted></_>
    <_>
      <rects>
        <_>
          6 2 6 4 -1.</_>
        <_>
          6 4 6 2 2.</_></rects>
      <tilted>0</tilted></_>
    <_>
      <rects>
        <_>
          6 3 4 12 -1.</_>
        <_>
          6 7 4 4 3.</_></rects>
      <tilted>0</tilted></_>
    <_>
      <rects>
        <_>
          6 11 6 6 -1.</_>
        <_>
          6 14 6 3 2.</_></rects>
      <tilted>0</tilted></_>
    <_>
      <rects>
        <_>
          6 15 9 2 -1.</_>
        <_>
          6 16 9 1 2.</_></rects>
      <tilted>0</tilted></_>
    <_>
      <rects>
        <_>
          6 16 6 3 -1.</_>
        <_>
          6 17 6 1 3.</_></rects>
      <tilted>0</tilted></_>
    <_>
      <rects>
        <_>
          6 17 4 4 -1.</_>
        <_>
          6 19 4 2 2.</_></rects>
      <tilted>0</tilted></_>
    <_>
      <rects>
        <_>
          7 13 11 12 -1.</_>
        <_>
          7 17 11 4 3.</_></rects>
      <tilted>0</tilted></_>
    <_>
      <rects>
        <_>
          7 18 6 3 -1.</_>
        <_>
          10 18 3 3 2.</_></rects>
      <tilted>0</tilted></_>
    <_>
      <rects>
        <_>
          7 18 7 3 -1.</_>
        <_>
          7 19 7 1 3.</_></rects>
      <tilted>0</tilted></_>
    <_>
      <rects>
        <_>
          9 15 5 6 -1.</_>
        <_>
          9 17 5 2 3.</_></rects>
      <tilted>0</tilted></_>
    <_>
      <rects>
        <_>
          10 7 2 9 -1.</_>
        <_>
          10 10 2 3 3.</_></rects>
      <tilted>0</tilted></_>
    <_>
      <rects>
        <_>
          10 9 2 12 -1.</_>
        <_>
          10 13 2 4 3.</_></rects>
      <tilted>0</tilted></_>
    <_>
      <rects>
        <_>
          10 10 4 15 -1.</_>
        <_>
          10 15 4 5 3.</_></rects>
      <tilted>0</tilted></_>
    <_>
      <rects>
        <_>
          10 19 6 3 -1.</_>
        <_>
          10 20 6 1 3.</_></rects>
      <tilted>0</tilted></_>
    <_>
      <rects>
        <_>
          14 2 6 14 -1.</_>
        <_>
          17 2 3 14 2.</_></rects>
      <tilted>0</tilted></_>
    <_>
      <rects>
        <_>
          14 9 6 4 -1.</_>
        <_>
          17 9 3 4 2.</_></rects>
      <tilted>0</tilted></_>
    <_>
      <rects>
        <_>
          14 16 4 9 -1.</_>
        <_>
          14 19 4 3 3.</_></rects>
      <tilted>0</tilted></_>
    <_>
      <rects>
        <_>
          14 19 1 6 -1.</_>
        <_>
          14 21 1 2 3.</_></rects>
      <tilted>0</tilted></_>
    <_>
      <rects>
        <_>
          15 1 4 17 -1.</_>
        <_>
          17 1 2 17 2.</_></rects>
      <tilted>0</tilted></_>
    <_>
      <rects>
        <_>
          16 11 4 12 -1.</_>
        <_>
          18 11 2 12 2.</_></rects>
      <tilted>0</tilted></_>
    <_>
      <rects>
        <_>
          16 13 4 9 -1.</_>
        <_>
          18 13 2 9 2.</_></rects>
      <tilted>0</tilted></_>
    <_>
      <rects>
        <_>
          16 15 3 5 -1.</_>
        <_>
          17 15 1 5 3.</_></rects>
      <tilted>0</tilted></_></features></cascade>
</opencv_storage>
